digraph Tree {
node [shape=box] ;
0 [label="Pclass <= 0.5\ngini = 0.473\nsamples = 891\nvalue = [549, 342]\nclass = Not Survived"] ;
1 [label="Parch <= 2.5\ngini = 0.3828\nsamples = 314\nvalue = [81, 233]\nclass = Survived"] ;
0 -> 1 [labeldistance=2.5, labelangle=45, headlabel="True"] ;
3 [label="gini = 0.1003\nsamples = 170\nvalue = [9, 161]\nclass = Survived"] ;
1 -> 3 ;
4 [label="Embarked <= 23.35\ngini = 0.5\nsamples = 144\nvalue = [72, 72]\nclass = Not Survived"] ;
1 -> 4 ;
7 [label="Ticket <= 16.5\ngini = 0.4839\nsamples = 117\nvalue = [48, 69]\nclass = Survived"] ;
4 -> 7 ;
15 [label="PassengerId <= 606.5\ngini = 0.4038\nsamples = 57\nvalue = [16, 41]\nclass = Survived"] ;
7 -> 15 ;
17 [label="gini = 0.2975\nsamples = 44\nvalue = [8, 36]\nclass = Survived"] ;
15 -> 17 ;
18 [label="gini = 0.4734\nsamples = 13\nvalue = [8, 5]\nclass = Not Survived"] ;
15 -> 18 ;
16 [label="gini = 0.4978\nsamples = 60\nvalue = [32, 28]\nclass = Not Survived"] ;
7 -> 16 ;
8 [label="gini = 0.1975\nsamples = 27\nvalue = [24, 3]\nclass = Not Survived"] ;
4 -> 8 ;
2 [label="Sex <= 4.5\ngini = 0.3064\nsamples = 577\nvalue = [468, 109]\nclass = Not Survived"] ;
0 -> 2 [labeldistance=2.5, labelangle=-45, headlabel="False"] ;
5 [label="gini = 0.234\nsamples = 473\nvalue = [409, 64]\nclass = Not Survived"] ;
2 -> 5 ;
6 [label="PassengerId <= 146.0\ngini = 0.4909\nsamples = 104\nvalue = [59, 45]\nclass = Not Survived"] ;
2 -> 6 ;
9 [label="gini = 0.3878\nsamples = 19\nvalue = [5, 14]\nclass = Survived"] ;
6 -> 9 ;
10 [label="Name <= 38.0\ngini = 0.4634\nsamples = 85\nvalue = [54, 31]\nclass = Not Survived"] ;
6 -> 10 ;
11 [label="gini = 0.1049\nsamples = 18\nvalue = [17, 1]\nclass = Not Survived"] ;
10 -> 11 ;
12 [label="Ticket <= 36.25\ngini = 0.4945\nsamples = 67\nvalue = [37, 30]\nclass = Not Survived"] ;
10 -> 12 ;
13 [label="gini = 0.4628\nsamples = 33\nvalue = [12, 21]\nclass = Survived"] ;
12 -> 13 ;
14 [label="gini = 0.3893\nsamples = 34\nvalue = [25, 9]\nclass = Not Survived"] ;
12 -> 14 ;
}